<?xml version="1.0"?>
<opencv_storage>
<stage14>
  <maxWeakCount>7</maxWeakCount>
  <stageThreshold>-1.7089353799819946e+00</stageThreshold>
  <weakClassifiers>
    <_>
      <internalNodes>
        0 -1 165769 -744762638 -640614056 -1736441835 -236252663
        -1870604598 -913833856 -896825109 -67130965</internalNodes>
      <leafValues>
        -7.4340635538101196e-01 3.8650307059288025e-01</leafValues></_>
    <_>
      <internalNodes>
        0 -1 13907 1828510191 -44269297 -190756856 -238210551 -363363941
        -897214719 -1056536441 -1008893305</internalNodes>
      <leafValues>
        -7.0984077453613281e-01 1.9867031276226044e-01</leafValues></_>
    <_>
      <internalNodes>
        0 -1 145583 -149432078 -1464663744 1358955923 -652013551
        -1459561477 -1971093319 -526880336 -2051021313</internalNodes>
      <leafValues>
        -6.7987936735153198e-01 3.1567424535751343e-01</leafValues></_>
    <_>
      <internalNodes>
        0 -1 43042 -749087235 -10546837 151094167 1888639044 -925189791
        966494208 -1325232096 -216731370</internalNodes>
      <leafValues>
        -8.6618459224700928e-01 2.2951626777648926e-01</leafValues></_>
    <_>
      <internalNodes>
        0 -1 161602 -290785576 1928277788 -1346437153 1533246573
        -29495886 -1749647363 -713032961 1529941551</internalNodes>
      <leafValues>
        -4.5515769720077515e-01 5.1423114538192749e-01</leafValues></_>
    <_>
      <internalNodes>
        0 -1 32421 -1068435490 -661515904 557879607 1762230531
        -1300114725 -1071545856 -737814389 -913730919</internalNodes>
      <leafValues>
        -6.6328281164169312e-01 3.4734779596328735e-01</leafValues></_>
    <_>
      <internalNodes>
        0 -1 103305 -233568866 -780132342 51528080 425197589 -2111196428
        -1323171320 604212409 857526824</internalNodes>
      <leafValues>
        -5.4800677299499512e-01 4.0460425615310669e-01</leafValues></_></weakClassifiers></stage14>
</opencv_storage>
