<?xml version="1.0"?>
<opencv_storage>
<stage12>
  <maxWeakCount>6</maxWeakCount>
  <stageThreshold>-1.7122566699981689e+00</stageThreshold>
  <weakClassifiers>
    <_>
      <internalNodes>
        0 -1 162227 -209192969 -251133949 335577088 -376864214
        -644923243 -1971248633 -376964728 -909117205</internalNodes>
      <leafValues>
        -8.5823082923889160e-01 -1.9480518996715546e-01</leafValues></_>
    <_>
      <internalNodes>
        0 -1 159031 -263597857 -1324154237 -788266813 -471912111
        -1062685186 730464686 1078048137 1158662655</internalNodes>
      <leafValues>
        -6.1708748340606689e-01 2.9063937067985535e-01</leafValues></_>
    <_>
      <internalNodes>
        0 -1 571 552588242 -112095192 -805175293 -539643775 -296844289
        -8290264 1213795979 -986218909</internalNodes>
      <leafValues>
        -4.8591890931129456e-01 4.8094093799591064e-01</leafValues></_>
    <_>
      <internalNodes>
        0 -1 6577 -36111800 -539058458 -1073747213 1898257143
        -1918456897 -1737097218 385374206 959659007</internalNodes>
      <leafValues>
        -4.3106630444526672e-01 5.5232745409011841e-01</leafValues></_>
    <_>
      <internalNodes>
        0 -1 135742 -631800737 1427604569 424676735 2099085387 -98858635
        -1163624432 1242417787 -25695557</internalNodes>
      <leafValues>
        -6.8282461166381836e-01 3.8105082511901855e-01</leafValues></_>
    <_>
      <internalNodes>
        0 -1 137824 -573189925 -251428720 -2147466991 1507316511
        -1852079477 -670924663 -368858453 -1410537240</internalNodes>
      <leafValues>
        -6.5823292732238770e-01 3.9601165056228638e-01</leafValues></_></weakClassifiers></stage12>
</opencv_storage>
