<?xml version="1.0"?>
<opencv_storage>
<stage9>
  <maxWeakCount>5</maxWeakCount>
  <stageThreshold>-1.7363353967666626e+00</stageThreshold>
  <weakClassifiers>
    <_>
      <internalNodes>
        0 -1 162488 -149427713 -187330429 403406857 -7368702 -536042845
        -1056601973 -659832591 -570426897</internalNodes>
      <leafValues>
        -8.4715449810028076e-01 -6.6666670143604279e-02</leafValues></_>
    <_>
      <internalNodes>
        0 -1 85605 1967813631 -720025731 -721299041 2077247965
        -232835688 -90630016 -502596610 -13468674</internalNodes>
      <leafValues>
        -6.7523443698883057e-01 3.1347548961639404e-01</leafValues></_>
    <_>
      <internalNodes>
        0 -1 140486 -203687937 1603750007 1900086107 -695303534
        -125570305 -494174072 -75255140 -136513060</internalNodes>
      <leafValues>
        -8.5014373064041138e-01 2.9323866963386536e-01</leafValues></_>
    <_>
      <internalNodes>
        0 -1 9161 -134744065 -1567558245 33637140 -36060286 -116610677
        -939425653 -1723233909 -203164733</internalNodes>
      <leafValues>
        -5.7850098609924316e-01 4.9484062194824219e-01</leafValues></_>
    <_>
      <internalNodes>
        0 -1 5825 -170954240 1365102621 -939458225 940802939 -670072320
        2046955530 -1820297206 861111163</internalNodes>
      <leafValues>
        -7.0297098159790039e-01 4.3421041965484619e-01</leafValues></_></weakClassifiers></stage9>
</opencv_storage>
