<?xml version="1.0"?>
<opencv_storage>
<stage11>
  <maxWeakCount>6</maxWeakCount>
  <stageThreshold>-1.4276705980300903e+00</stageThreshold>
  <weakClassifiers>
    <_>
      <internalNodes>
        0 -1 157907 -145622945 -540325651 1090633759 -574271409
        -930881030 -1328873462 -1039799813 -433330017</internalNodes>
      <leafValues>
        -8.0635398626327515e-01 -2.3980815894901752e-03</leafValues></_>
    <_>
      <internalNodes>
        0 -1 156664 -204477829 -640483319 -2147416051 -649866981
        -209067323 -2013036543 -347608343 -67130643</internalNodes>
      <leafValues>
        -6.6193872690200806e-01 2.8268823027610779e-01</leafValues></_>
    <_>
      <internalNodes>
        0 -1 80745 1358977533 1037648413 209834460 857277726 -1144878401
        -8353584 2034928268 170846266</internalNodes>
      <leafValues>
        -6.6138786077499390e-01 3.5929960012435913e-01</leafValues></_>
    <_>
      <internalNodes>
        0 -1 53682 -15730985 -971800191 1342177296 1079820550
        -1844756343 -1735737302 -1979211230 -128913423</internalNodes>
      <leafValues>
        -8.8625532388687134e-01 2.4393530189990997e-01</leafValues></_>
    <_>
      <internalNodes>
        0 -1 213 -1051868754 -49118895 17121567 1532219513 -76291621
        -651094014 536883289 -1962847721</internalNodes>
      <leafValues>
        -8.1205058097839355e-01 3.0585920810699463e-01</leafValues></_>
    <_>
      <internalNodes>
        0 -1 6299 -796721830 1532166217 1076920406 1360118019 302555690
        -83355645 -1325148005 1396163331</internalNodes>
      <leafValues>
        -5.4223722219467163e-01 4.6953707933425903e-01</leafValues></_></weakClassifiers></stage11>
</opencv_storage>
