<?xml version="1.0"?>
<opencv_storage>
<stage22>
  <maxWeakCount>34</maxWeakCount>
  <stageThreshold>-1.7440698146820068e+00</stageThreshold>
  <weakClassifiers>
    <_>
      <internalNodes>
        0 -1 2593440 -1.8568634986877441e-03</internalNodes>
      <leafValues>
        -1.7804155126214027e-02 -5.4948532581329346e-01</leafValues></_>
    <_>
      <internalNodes>
        0 -1 70488 -2.8535993769764900e-03</internalNodes>
      <leafValues>
        -6.2818568944931030e-01 3.6844845861196518e-02</leafValues></_>
    <_>
      <internalNodes>
        0 -1 3023387 1.9946797692682594e-05</internalNodes>
      <leafValues>
        1.4010614156723022e-01 -4.5382210612297058e-01</leafValues></_>
    <_>
      <internalNodes>
        0 -1 1734752 1.1662432370940223e-04</internalNodes>
      <leafValues>
        -1.7889744043350220e-01 3.2734388113021851e-01</leafValues></_>
    <_>
      <internalNodes>
        0 -1 1352065 9.6567124128341675e-03</internalNodes>
      <leafValues>
        -1.7270547151565552e-01 2.6948168873786926e-01</leafValues></_>
    <_>
      <internalNodes>
        0 -1 2537567 -4.1519105434417725e-04</internalNodes>
      <leafValues>
        4.2164072394371033e-01 -1.3261473178863525e-01</leafValues></_>
    <_>
      <internalNodes>
        0 -1 96247 1.1907093226909637e-01</internalNodes>
      <leafValues>
        7.0791706442832947e-02 -7.0338064432144165e-01</leafValues></_>
    <_>
      <internalNodes>
        0 -1 3020970 3.9389564335579053e-05</internalNodes>
      <leafValues>
        1.5343432128429413e-01 -3.5455170273780823e-01</leafValues></_>
    <_>
      <internalNodes>
        0 -1 3020970 -3.2200245186686516e-05</internalNodes>
      <leafValues>
        -3.1829786300659180e-01 1.7299142479896545e-01</leafValues></_>
    <_>
      <internalNodes>
        0 -1 3010812 -1.1530268238857388e-05</internalNodes>
      <leafValues>
        3.0091646313667297e-01 -1.8227794766426086e-01</leafValues></_>
    <_>
      <internalNodes>
        0 -1 1352331 1.6566228866577148e-01</internalNodes>
      <leafValues>
        5.1462192088365555e-02 -8.6905705928802490e-01</leafValues></_>
    <_>
      <internalNodes>
        0 -1 2811177 -4.9285395070910454e-03</internalNodes>
      <leafValues>
        2.0760896801948547e-01 -2.7069571614265442e-01</leafValues></_>
    <_>
      <internalNodes>
        0 -1 3022756 -6.6425825934857130e-05</internalNodes>
      <leafValues>
        -5.4981416463851929e-01 9.3229234218597412e-02</leafValues></_>
    <_>
      <internalNodes>
        0 -1 3010809 -2.9108950911904685e-05</internalNodes>
      <leafValues>
        3.4603905677795410e-01 -1.6446134448051453e-01</leafValues></_>
    <_>
      <internalNodes>
        0 -1 1064606 2.6904564350843430e-02</internalNodes>
      <leafValues>
        6.2235198915004730e-02 -7.9527938365936279e-01</leafValues></_>
    <_>
      <internalNodes>
        0 -1 2214583 6.6958121955394745e-02</internalNodes>
      <leafValues>
        -3.2189434766769409e-01 1.4965106546878815e-01</leafValues></_>
    <_>
      <internalNodes>
        0 -1 2337176 -1.2483117170631886e-03</internalNodes>
      <leafValues>
        3.8151231408119202e-01 -1.5303157269954681e-01</leafValues></_>
    <_>
      <internalNodes>
        0 -1 3023515 2.6775036531034857e-05</internalNodes>
      <leafValues>
        9.1094844043254852e-02 -6.5892136096954346e-01</leafValues></_>
    <_>
      <internalNodes>
        0 -1 1993500 1.7834964673966169e-03</internalNodes>
      <leafValues>
        -1.1488435417413712e-01 5.6272959709167480e-01</leafValues></_>
    <_>
      <internalNodes>
        0 -1 1436068 6.4409272745251656e-03</internalNodes>
      <leafValues>
        -1.3383898138999939e-01 4.8315471410751343e-01</leafValues></_>
    <_>
      <internalNodes>
        0 -1 2346702 -4.1354130371473730e-04</internalNodes>
      <leafValues>
        3.8061261177062988e-01 -1.3969913125038147e-01</leafValues></_>
    <_>
      <internalNodes>
        0 -1 671152 -4.8995283577824011e-05</internalNodes>
      <leafValues>
        2.2436857223510742e-01 -2.5068095326423645e-01</leafValues></_>
    <_>
      <internalNodes>
        0 -1 54136 5.5301189422607422e-04</internalNodes>
      <leafValues>
        1.0864233970642090e-01 -5.1559048891067505e-01</leafValues></_>
    <_>
      <internalNodes>
        0 -1 2571004 -8.6770637426525354e-04</internalNodes>
      <leafValues>
        5.9761285781860352e-01 -9.7019046545028687e-02</leafValues></_>
    <_>
      <internalNodes>
        0 -1 2698439 -7.2806514799594879e-04</internalNodes>
      <leafValues>
        2.0174309611320496e-01 -2.6978880167007446e-01</leafValues></_>
    <_>
      <internalNodes>
        0 -1 2438418 8.1765390932559967e-03</internalNodes>
      <leafValues>
        5.5360078811645508e-02 -8.7015098333358765e-01</leafValues></_>
    <_>
      <internalNodes>
        0 -1 2704141 4.1995372157543898e-04</internalNodes>
      <leafValues>
        -1.2194060534238815e-01 5.1168054342269897e-01</leafValues></_>
    <_>
      <internalNodes>
        0 -1 1237195 3.9145862683653831e-03</internalNodes>
      <leafValues>
        -2.0736479759216309e-01 2.7316510677337646e-01</leafValues></_>
    <_>
      <internalNodes>
        0 -1 2735102 -6.2831750256009400e-05</internalNodes>
      <leafValues>
        4.0776547789573669e-01 -1.4307363331317902e-01</leafValues></_>
    <_>
      <internalNodes>
        0 -1 2074183 -1.3647580519318581e-02</internalNodes>
      <leafValues>
        -7.4119514226913452e-01 7.9750813543796539e-02</leafValues></_>
    <_>
      <internalNodes>
        0 -1 1188265 7.1405678987503052e-02</internalNodes>
      <leafValues>
        -9.8775848746299744e-02 6.1365622282028198e-01</leafValues></_>
    <_>
      <internalNodes>
        0 -1 82338 2.8358615934848785e-02</internalNodes>
      <leafValues>
        9.1475814580917358e-02 -6.7085641622543335e-01</leafValues></_>
    <_>
      <internalNodes>
        0 -1 1747599 -2.7667514979839325e-02</internalNodes>
      <leafValues>
        -8.5564565658569336e-01 4.7827202826738358e-02</leafValues></_>
    <_>
      <internalNodes>
        0 -1 2892129 -3.9652877603657544e-05</internalNodes>
      <leafValues>
        2.1307112276554108e-01 -2.4643670022487640e-01</leafValues></_></weakClassifiers></stage22>
</opencv_storage>
