<?xml version="1.0"?>
<opencv_storage>
<stage6>
  <maxWeakCount>18</maxWeakCount>
  <stageThreshold>-1.9998421669006348e+00</stageThreshold>
  <weakClassifiers>
    <_>
      <internalNodes>
        0 -1 2775496 -4.1953206527978182e-04</internalNodes>
      <leafValues>
        1.9619047641754150e-01 -5.6186914443969727e-01</leafValues></_>
    <_>
      <internalNodes>
        0 -1 2701151 -4.1046671685762703e-04</internalNodes>
      <leafValues>
        5.2756011486053467e-01 -2.3934251070022583e-01</leafValues></_>
    <_>
      <internalNodes>
        0 -1 264106 1.0281300172209740e-02</internalNodes>
      <leafValues>
        -3.9091104269027710e-01 2.8863620758056641e-01</leafValues></_>
    <_>
      <internalNodes>
        0 -1 123729 2.2809147834777832e-02</internalNodes>
      <leafValues>
        -7.2460114955902100e-01 1.8828941881656647e-01</leafValues></_>
    <_>
      <internalNodes>
        0 -1 1438018 -2.1963394829072058e-04</internalNodes>
      <leafValues>
        4.4523435831069946e-01 -2.4007634818553925e-01</leafValues></_>
    <_>
      <internalNodes>
        0 -1 3024010 -6.4850710332393646e-03</internalNodes>
      <leafValues>
        -6.6674530506134033e-01 1.9161011278629303e-01</leafValues></_>
    <_>
      <internalNodes>
        0 -1 2198077 1.2415689416229725e-03</internalNodes>
      <leafValues>
        -2.3926253616809845e-01 4.3073719739913940e-01</leafValues></_>
    <_>
      <internalNodes>
        0 -1 2319169 -6.9319806061685085e-04</internalNodes>
      <leafValues>
        4.5762035250663757e-01 -2.3127077519893646e-01</leafValues></_>
    <_>
      <internalNodes>
        0 -1 475860 4.1195988655090332e-02</internalNodes>
      <leafValues>
        1.6310161352157593e-01 -7.5329518318176270e-01</leafValues></_>
    <_>
      <internalNodes>
        0 -1 2450846 4.6645899419672787e-04</internalNodes>
      <leafValues>
        -2.3542408645153046e-01 4.5396158099174500e-01</leafValues></_>
    <_>
      <internalNodes>
        0 -1 2270329 -8.6864475160837173e-03</internalNodes>
      <leafValues>
        5.5056071281433105e-01 -1.9501993060112000e-01</leafValues></_>
    <_>
      <internalNodes>
        0 -1 544020 -1.5228326083160937e-04</internalNodes>
      <leafValues>
        3.2476592063903809e-01 -3.2326251268386841e-01</leafValues></_>
    <_>
      <internalNodes>
        0 -1 11893 2.6918759942054749e-01</internalNodes>
      <leafValues>
        -2.1769474446773529e-01 4.6383720636367798e-01</leafValues></_>
    <_>
      <internalNodes>
        0 -1 3017272 3.9829094894230366e-03</internalNodes>
      <leafValues>
        1.2652422487735748e-01 -8.5068160295486450e-01</leafValues></_>
    <_>
      <internalNodes>
        0 -1 1780373 1.9482510106172413e-04</internalNodes>
      <leafValues>
        -4.2273455858230591e-01 2.3973122239112854e-01</leafValues></_>
    <_>
      <internalNodes>
        0 -1 117193 -6.5658002858981490e-04</internalNodes>
      <leafValues>
        -8.3240813016891479e-01 1.0180241614580154e-01</leafValues></_>
    <_>
      <internalNodes>
        0 -1 2340983 1.8740256200544536e-04</internalNodes>
      <leafValues>
        -2.9970344901084900e-01 3.4450343251228333e-01</leafValues></_>
    <_>
      <internalNodes>
        0 -1 112627 9.3381712213158607e-04</internalNodes>
      <leafValues>
        1.5540193021297455e-01 -6.8751567602157593e-01</leafValues></_></weakClassifiers></stage6>
</opencv_storage>
