<?xml version="1.0"?>
<opencv_storage>
<stage14>
  <maxWeakCount>28</maxWeakCount>
  <stageThreshold>-1.5487579107284546e+00</stageThreshold>
  <weakClassifiers>
    <_>
      <internalNodes>
        0 -1 2524048 3.6688824184238911e-04</internalNodes>
      <leafValues>
        -4.9594044685363770e-01 2.7049180865287781e-01</leafValues></_>
    <_>
      <internalNodes>
        0 -1 35188 -7.1506074164062738e-04</internalNodes>
      <leafValues>
        -6.9045805931091309e-01 4.3421119451522827e-02</leafValues></_>
    <_>
      <internalNodes>
        0 -1 872495 4.8096836544573307e-03</internalNodes>
      <leafValues>
        -1.8669541180133820e-01 3.0210724472999573e-01</leafValues></_>
    <_>
      <internalNodes>
        0 -1 871317 1.5211504697799683e-01</internalNodes>
      <leafValues>
        -1.2743902206420898e-01 5.1087409257888794e-01</leafValues></_>
    <_>
      <internalNodes>
        0 -1 45017 -4.0545284748077393e-02</internalNodes>
      <leafValues>
        1.8292272090911865e-01 -3.9657664299011230e-01</leafValues></_>
    <_>
      <internalNodes>
        0 -1 2699394 5.2400416461750865e-04</internalNodes>
      <leafValues>
        -1.5820254385471344e-01 4.0359672904014587e-01</leafValues></_>
    <_>
      <internalNodes>
        0 -1 1528983 -1.0730389039963484e-03</internalNodes>
      <leafValues>
        3.2738786935806274e-01 -1.7312692105770111e-01</leafValues></_>
    <_>
      <internalNodes>
        0 -1 3022119 2.4539549485780299e-05</internalNodes>
      <leafValues>
        1.1498154699802399e-01 -6.3975208997726440e-01</leafValues></_>
    <_>
      <internalNodes>
        0 -1 1622727 -8.0124428495764732e-04</internalNodes>
      <leafValues>
        4.7057861089706421e-01 -1.4305762946605682e-01</leafValues></_>
    <_>
      <internalNodes>
        0 -1 2289862 -4.0069250389933586e-03</internalNodes>
      <leafValues>
        1.9076979160308838e-01 -3.1187203526496887e-01</leafValues></_>
    <_>
      <internalNodes>
        0 -1 2883902 -2.9937309591332451e-05</internalNodes>
      <leafValues>
        3.7977826595306396e-01 -1.4754034578800201e-01</leafValues></_>
    <_>
      <internalNodes>
        0 -1 3015679 1.1690102983266115e-03</internalNodes>
      <leafValues>
        6.9106705486774445e-02 -8.5508024692535400e-01</leafValues></_>
    <_>
      <internalNodes>
        0 -1 1523327 4.2718142503872514e-04</internalNodes>
      <leafValues>
        -2.2685834765434265e-01 2.6732540130615234e-01</leafValues></_>
    <_>
      <internalNodes>
        0 -1 104763 3.6371219903230667e-03</internalNodes>
      <leafValues>
        -1.5568746626377106e-01 3.5704162716865540e-01</leafValues></_>
    <_>
      <internalNodes>
        0 -1 1737125 4.2919389903545380e-02</internalNodes>
      <leafValues>
        7.5469933450222015e-02 -8.0210953950881958e-01</leafValues></_>
    <_>
      <internalNodes>
        0 -1 2170262 1.5952819958329201e-03</internalNodes>
      <leafValues>
        -1.8830594420433044e-01 3.0245220661163330e-01</leafValues></_>
    <_>
      <internalNodes>
        0 -1 2177199 -6.9248850923031569e-04</internalNodes>
      <leafValues>
        3.9655891060829163e-01 -1.4528992772102356e-01</leafValues></_>
    <_>
      <internalNodes>
        0 -1 3023687 3.8765359931858256e-05</internalNodes>
      <leafValues>
        7.4039377272129059e-02 -8.3684360980987549e-01</leafValues></_>
    <_>
      <internalNodes>
        0 -1 2129611 7.9585751518607140e-04</internalNodes>
      <leafValues>
        -3.1366315484046936e-01 1.8044932186603546e-01</leafValues></_>
    <_>
      <internalNodes>
        0 -1 2672553 -3.5063450923189521e-05</internalNodes>
      <leafValues>
        3.5693907737731934e-01 -1.7080022394657135e-01</leafValues></_>
    <_>
      <internalNodes>
        0 -1 2267154 -1.6687981784343719e-02</internalNodes>
      <leafValues>
        -7.7812689542770386e-01 7.5478017330169678e-02</leafValues></_>
    <_>
      <internalNodes>
        0 -1 767476 -1.2536589056253433e-03</internalNodes>
      <leafValues>
        2.8009265661239624e-01 -2.0874142646789551e-01</leafValues></_>
    <_>
      <internalNodes>
        0 -1 663712 4.9384072190150619e-04</internalNodes>
      <leafValues>
        -1.2100201100111008e-01 4.8591184616088867e-01</leafValues></_>
    <_>
      <internalNodes>
        0 -1 2074298 5.5052628740668297e-03</internalNodes>
      <leafValues>
        1.0972107201814651e-01 -5.5252110958099365e-01</leafValues></_>
    <_>
      <internalNodes>
        0 -1 886904 2.8048502281308174e-03</internalNodes>
      <leafValues>
        -2.5945442914962769e-01 2.2996784746646881e-01</leafValues></_>
    <_>
      <internalNodes>
        0 -1 1013895 -1.9275686144828796e-01</internalNodes>
      <leafValues>
        2.2002817690372467e-01 -2.8548809885978699e-01</leafValues></_>
    <_>
      <internalNodes>
        0 -1 3015959 1.3507724361261353e-05</internalNodes>
      <leafValues>
        -1.7241385579109192e-01 3.3555597066879272e-01</leafValues></_>
    <_>
      <internalNodes>
        0 -1 3015959 -1.2545402569230646e-05</internalNodes>
      <leafValues>
        3.7316039204597473e-01 -1.8795102834701538e-01</leafValues></_></weakClassifiers></stage14>
</opencv_storage>
