<?xml version="1.0"?>
<opencv_storage>
<stage5>
  <maxWeakCount>17</maxWeakCount>
  <stageThreshold>-1.8399119377136230e+00</stageThreshold>
  <weakClassifiers>
    <_>
      <internalNodes>
        0 -1 2810210 -7.3927891207858920e-05</internalNodes>
      <leafValues>
        2.0820190012454987e-01 -5.9703820943832397e-01</leafValues></_>
    <_>
      <internalNodes>
        0 -1 323151 -7.9612312838435173e-03</internalNodes>
      <leafValues>
        3.4522798657417297e-01 -4.1369548439979553e-01</leafValues></_>
    <_>
      <internalNodes>
        0 -1 2666028 -3.6724123638123274e-03</internalNodes>
      <leafValues>
        3.4547355771064758e-01 -3.6300843954086304e-01</leafValues></_>
    <_>
      <internalNodes>
        0 -1 2701065 8.1863661762326956e-05</internalNodes>
      <leafValues>
        -2.0740529894828796e-01 5.4094791412353516e-01</leafValues></_>
    <_>
      <internalNodes>
        0 -1 1723719 -1.2817761301994324e-01</internalNodes>
      <leafValues>
        3.1192287802696228e-01 -3.6347591876983643e-01</leafValues></_>
    <_>
      <internalNodes>
        0 -1 1859171 -7.1088951081037521e-03</internalNodes>
      <leafValues>
        6.4907944202423096e-01 -1.7524939775466919e-01</leafValues></_>
    <_>
      <internalNodes>
        0 -1 1584650 -3.0873275827616453e-03</internalNodes>
      <leafValues>
        5.1494199037551880e-01 -2.1810816228389740e-01</leafValues></_>
    <_>
      <internalNodes>
        0 -1 1500107 -2.5434731505811214e-03</internalNodes>
      <leafValues>
        6.6226553916931152e-01 -1.8166778981685638e-01</leafValues></_>
    <_>
      <internalNodes>
        0 -1 2430534 -1.8350710161030293e-04</internalNodes>
      <leafValues>
        5.4349428415298462e-01 -1.9879227876663208e-01</leafValues></_>
    <_>
      <internalNodes>
        0 -1 236021 3.6787255667150021e-03</internalNodes>
      <leafValues>
        1.8217404186725616e-01 -8.3663314580917358e-01</leafValues></_>
    <_>
      <internalNodes>
        0 -1 1385860 7.8568160533905029e-03</internalNodes>
      <leafValues>
        -2.6628488302230835e-01 4.8031941056251526e-01</leafValues></_>
    <_>
      <internalNodes>
        0 -1 872629 6.6945464350283146e-03</internalNodes>
      <leafValues>
        -3.0982989072799683e-01 3.8412269949913025e-01</leafValues></_>
    <_>
      <internalNodes>
        0 -1 1931338 6.1140302568674088e-04</internalNodes>
      <leafValues>
        1.5747593343257904e-01 -8.4508770704269409e-01</leafValues></_>
    <_>
      <internalNodes>
        0 -1 2399331 -5.3639936959370971e-04</internalNodes>
      <leafValues>
        5.8489245176315308e-01 -2.0091110467910767e-01</leafValues></_>
    <_>
      <internalNodes>
        0 -1 1934877 1.9518233835697174e-02</internalNodes>
      <leafValues>
        1.4075602591037750e-01 -8.3489555120468140e-01</leafValues></_>
    <_>
      <internalNodes>
        0 -1 2758933 -1.1758327673305757e-05</internalNodes>
      <leafValues>
        3.5114336013793945e-01 -2.8097617626190186e-01</leafValues></_>
    <_>
      <internalNodes>
        0 -1 2011726 -1.2896600365638733e-01</internalNodes>
      <leafValues>
        2.1912640333175659e-01 -4.6178901195526123e-01</leafValues></_></weakClassifiers></stage5>
</opencv_storage>
